2
1
2
1
0
1
1
0
1
-1
-2
-1
-2
-4
-2
0
-2
-1
0
-1
0
-1
-2
-1
0
-1
0
0
0
0
0
0
0
1
0
0
0
-1
-1
0
-1
-1
0
0
0
0
0
0
0
0
0
0
0
0
-2
-3
-2
-3
-4
-3
-2
-3
-3
3
4
3
3
4
4
2
3
3
0
-1
-1
0
0
0
0
0
-1
2
2
2
2
3
3
2
2
2
-4
-4
-4
-4
-5
-4
-4
-5
-4
2
3
2
2
4
3
1
2
2
-1
-1
-1
-2
-2
-1
-1
-1
-1
3
4
3
4
5
4
3
4
3
-1
-2
-1
-1
-2
-2
-1
-1
-2
-3
-3
-1
-1
0
1
1
2
3
-3
-3
-2
0
1
1
2
3
2
-1
-2
-1
0
0
0
1
1
1
2
0
0
2
-2
-6
2
0
-2
2
0
-2
3
-2
-6
5
2
0
0
-1
-3
0
-3
-6
2
0
-1
1
1
1
1
0
1
1
0
1
1
0
1
0
-1
0
1
0
1
-1
-2
-1
-2
-3
-2
-1
-2
-1
-13
-21
-13
0
-32
24
32
6
21
27
29
32
-2
-48
22
0
-51
-13
-3
-4
-13
2
-22
9
22
0
13
0
1
1
-3
-1
2
-4
-2
2
1
2
3
-2
-1
2
-4
-2
2
0
0
0
-3
-2
0
-3
-3
0
0
1
1
2
2
2
1
2
1
-1
0
0
0
0
0
0
0
0
-1
0
-1
0
0
0
0
0
0
-22
-4
16
-29
0
29
-18
4
26
5
-6
-13
6
0
-7
11
3
0
24
11
-6
20
0
-21
5
-11
-22
-1
0
-1
0
0
0
0
0
-1
0
1
0
1
2
1
0
1
0
0
1
0
2
3
1
1
1
0
0
0
0
0
0
0
0
0
0
0
0
0
0
0
0
0
0
0
0
0
0
0
0
0
0
0
0
0
0
0
0
0
0
0
0
0
0
0
0
0
0
0
0
0
0
0
0
0
0
0
0
0
0
0
0
-1
-1
0
-1
0
1
1
0
1
0
0
0
0
0
0
0
0
0
0
1
-1
0
1
-1
0
0
-1
-2
-1
-2
-3
-2
-1
-2
-1
3
4
3
3
5
4
3
4
3
-2
-2
-1
-2
-2
-2
-1
-2
-2
38
-44
-7
11
30
-14
0
2
-16
-10
-67
22
-42
57
50
-28
9
8
27
-30
-2
5
28
-14
7
-3
-14
-10
-7
-1
-4
0
4
1
6
9
-11
-7
0
-5
0
6
1
6
10
-8
-4
0
-4
1
5
0
4
7
0
1
1
0
1
1
0
1
1
-2
-3
-2
-3
-3
-2
-2
-2
-2
2
3
2
2
3
2
1
2
1
1
2
0
4
6
3
3
5
2
-2
0
-2
0
2
0
-1
1
-1
-2
0
-2
0
1
0
-1
0
-1
0
0
0
-1
-6
-1
0
-4
0
2
1
3
0
-6
0
0
-4
1
2
0
1
0
-4
0
0
-4
0
7
0
-7
8
0
-11
7
1
-6
8
-2
-13
12
0
-15
12
4
-8
6
0
-7
8
0
-10
6
1
-5
-1
-1
0
-1
-1
-1
0
-1
0
-1
-1
-1
-1
-1
-1
-1
-1
-1
1
2
1
2
2
2
1
2
1
1
0
-2
2
0
-2
3
1
-1
0
-1
-3
0
-3
-4
0
-2
-3
2
3
1
2
2
1
1
1
0
-2
-1
-3
0
1
-1
0
1
-1
1
2
1
3
6
3
2
4
2
-1
0
-1
0
4
1
-1
1
-1
0
-1
-2
0
-1
-2
1
0
0
0
0
-1
1
0
-1
3
2
0
0
-1
-2
0
-1
-2
1
0
0
23
-1
-25
34
0
-30
26
-4
-20
8
22
22
-13
1
9
-23
-24
-5
-30
-21
-1
-24
3
26
2
16
33
-1
-1
-1
-2
-2
-1
-1
-1
-1
-1
-1
-1
-1
-1
-1
-1
-1
-1
2
2
2
2
3
3
2
3
2
1
-1
0
-2
-10
-2
0
-2
1
0
-2
1
-1
-10
-1
2
-1
2
2
0
3
0
-7
0
3
0
3
2
3
2
3
4
3
2
2
2
-2
-2
-2
-2
-3
-2
-2
-2
-2
-1
-1
-1
-1
-1
-1
-1
-1
-1
0
-1
0
-1
-1
-1
0
-1
0
0
1
0
0
1
0
0
0
0
0
0
0
0
0
0
0
0
0
4
3
0
7
1
-8
5
-2
-11
8
6
0
10
2
-12
5
-4
-16
3
4
2
5
1
-6
2
-3
-9
0
0
0
0
0
0
0
2
0
0
-1
0
0
0
0
0
2
0
0
0
0
0
0
0
0
0
0
3
2
0
1
0
-2
0
-1
-2
1
1
0
0
1
-1
0
0
-1
-1
-2
-2
0
0
-1
2
2
1
4
4
2
2
1
-2
0
-3
-6
5
4
1
3
0
-3
0
-4
-7
3
1
-1
3
0
-3
1
-2
-5
1
1
2
0
-2
-1
0
-3
-1
1
0
0
0
-3
-3
-1
-4
-3
2
1
1
0
-1
0
0
-2
-1
-1
-2
-1
-1
-2
-2
-1
-2
-1
2
2
1
2
2
1
1
1
1
0
0
0
0
0
0
0
0
0
-1
-6
-1
-3
-9
-2
0
-2
0
0
-5
3
0
-7
2
4
2
5
0
-3
2
-1
-6
0
2
0
2
-4
-9
-9
2
0
-2
9
8
6
-4
-10
-11
4
0
-3
10
9
5
-3
-6
-7
2
0
-1
6
5
3
-5
0
3
-6
0
6
-4
1
5
-5
1
6
-8
0
7
-7
-1
4
-1
3
6
-5
1
5
-6
-2
1
2
3
3
3
4
3
1
2
2
-2
-3
-2
-2
-3
-2
-2
-2
-1
0
1
0
1
1
0
0
1
0
0
1
0
1
2
2
0
1
1
0
0
0
1
1
1
0
1
1
-1
-1
-1
-1
0
0
-1
-1
-1
-2
-2
-1
0
0
0
1
2
2
-2
-2
-1
0
0
1
1
2
2
-1
-1
0
-1
0
1
0
1
2
-1
0
1
-1
0
1
-1
0
1
0
0
0
0
0
0
0
0
0
2
2
1
1
0
-1
-1
-2
-3
0
-2
0
0
-4
0
3
2
3
0
-3
0
0
-5
0
3
2
3
-2
-5
-3
-3
-5
-3
0
-1
0
-1
-2
-1
-2
-3
-2
-2
-2
-2
2
3
2
2
3
2
2
2
2
0
0
0
0
0
0
0
0
0
2
1
3
0
-2
1
1
0
2
0
-1
1
-2
-6
-1
1
-1
1
-1
-3
-1
-3
-6
-3
-1
-2
-1
-4
1
7
-13
-3
8
-4
1
7
-7
0
7
-15
-3
10
-4
2
9
-2
1
3
-9
-2
5
-1
2
4
-19
-29
-23
6
3
-4
24
30
14
17
5
-1
11
-3
-12
2
-7
-17
1
21
27
-16
0
17
-28
-20
0
6
1
6
-2
-11
0
4
0
5
-2
-7
-2
-8
-18
-6
0
-5
-1
4
2
5
0
-6
2
4
0
4
14
28
21
-4
1
4
-19
-24
-16
-16
-5
0
-11
0
10
0
5
15
0
-17
-24
14
0
-15
25
16
0
1
1
1
0
0
0
1
0
1
-3
-3
-3
-4
-4
-3
-3
-3
-3
3
4
3
3
5
4
2
3
3
-2
-2
-1
-1
0
1
1
2
2
-6
-7
-4
-1
0
1
4
7
7
-5
-7
-6
0
0
0
6
7
5
-4
-2
1
-3
0
4
-1
2
4
-4
-1
1
-3
0
3
-1
1
3
-2
0
1
-2
0
2
-1
1
2
-1
-2
-1
-2
-3
-1
0
-1
0
0
-1
0
-1
-2
0
0
-1
0
1
0
1
0
0
1
0
0
1
1
1
0
1
2
1
1
1
0
0
1
0
0
1
0
0
0
-1
0
0
0
0
0
0
-1
0
-1
-4
-7
-6
2
0
-1
6
6
4
-3
-7
-6
3
0
-1
6
5
3
-2
-3
-2
1
0
0
2
2
2
7
8
7
0
0
1
-8
-10
-6
9
11
9
0
0
1
-10
-12
-8
6
7
6
1
0
1
-7
-9
-5
1
1
1
1
2
1
0
1
0
1
1
1
2
2
2
1
2
1
-2
-3
-2
-3
-4
-3
-2
-2
-2
1
1
1
1
0
1
1
0
1
1
1
1
1
0
1
1
0
1
-1
-2
-1
-2
-3
-2
-1
-2
-1
0
0
-1
1
1
0
1
1
0
1
1
0
2
2
1
1
2
0
0
0
-1
0
1
0
0
0
-1
3
6
7
-7
0
5
-11
-5
1
-1
5
9
-10
0
9
-12
-3
6
-2
1
2
-6
0
5
-6
0
4
-14
-7
-4
-14
71
-19
7
-24
4
-7
13
-19
-17
127
-33
-12
-51
-12
-6
-9
1
-10
48
-20
7
-24
11
