2
0
-2
2
-1
-3
2
1
-13
0
0
-22
-1
0
0
0
-1
38
-10
0
1
0
7
-1
1
-2
0
23
-1
1
2
0
4
0
3
4
1
-1
-1
-4
-5
2
0
-2
-1
0
-1
2
-4
-19
6
14
1
-2
-4
-1
1
-4
7
1
1
0
3
-14
1
0
-3
2
-1
-3
0
1
-21
1
1
-4
0
0
0
-1
-2
-44
-7
1
2
0
0
-1
0
-1
-1
-1
-1
-1
3
-1
3
0
2
4
1
-2
-6
-9
0
3
1
-2
0
-2
-2
1
1
-29
1
28
1
-2
-2
-2
1
-7
8
1
1
0
6
-7
2
0
-2
2
-1
-1
0
1
-13
1
1
16
-1
0
0
-1
-1
-7
-1
1
0
0
-7
0
-2
-3
-2
-25
-1
0
2
0
0
0
0
2
2
-1
-1
-9
3
3
0
-1
1
0
-1
3
7
-23
6
21
1
-1
1
-1
0
-6
7
1
1
-1
7
-4
1
0
-3
2
-2
-1
2
1
0
-3
2
-29
0
0
0
0
-2
11
-4
0
4
-1
8
-1
2
0
0
34
-2
-2
3
-1
7
0
1
2
0
-1
-3
2
-6
3
1
0
-1
0
-2
0
-13
6
-2
-4
0
-1
-3
-2
1
2
0
1
1
1
-7
-14
0
0
-4
3
-2
0
-2
0
-32
-1
2
0
0
0
0
-1
-3
30
0
1
6
-6
0
-1
0
1
-1
0
-2
-10
4
-1
1
0
0
1
-2
-2
-9
0
0
4
2
0
0
-4
-3
-2
-3
3
-11
1
0
0
0
-3
2
0
0
2
0
1
0
71
1
0
-3
3
-1
1
-6
1
24
2
2
29
0
0
0
0
-2
-14
4
1
3
-1
-11
-1
-2
-1
-2
-30
-1
-2
3
-1
-8
0
-2
-2
-1
-2
-2
-2
6
3
2
0
1
0
-2
1
8
-4
0
4
0
1
4
-1
1
-1
1
1
1
0
5
-19
1
1
-2
2
-1
1
2
1
32
-4
1
-18
0
0
0
1
-1
0
1
0
3
0
7
0
3
0
1
26
-1
0
2
0
5
0
0
0
0
-1
0
9
-4
1
0
1
-1
3
-2
1
-4
24
4
-19
1
1
-1
0
1
6
-8
0
1
1
-11
7
0
0
-3
2
-1
2
0
0
6
-2
2
4
0
0
0
1
-2
2
6
1
5
-4
1
-1
1
1
0
-4
-1
-2
2
-1
-2
2
-1
-3
-3
-2
-2
8
1
2
1
2
0
2
-2
0
1
30
0
-24
0
2
2
-1
1
6
-10
1
0
1
-5
-24
1
0
-3
2
-1
3
-2
1
21
2
1
26
-1
0
0
0
-1
-16
9
1
2
0
-6
0
-1
-1
0
-20
-1
1
2
0
-11
0
-2
-6
-1
-1
0
6
5
2
1
2
1
3
-2
2
7
14
5
-16
1
2
4
0
0
4
-6
0
1
0
1
4
-1
0
3
-4
3
-3
2
1
27
1
-1
5
0
0
0
1
3
-10
-11
-2
-2
2
8
-1
0
1
0
8
-1
0
-2
0
8
0
1
5
1
2
0
-4
-5
-2
0
-2
0
0
2
0
-7
17
-2
-16
-3
-6
-4
0
0
-3
9
1
1
1
-1
-7
-2
-1
4
-4
4
-3
0
0
29
2
0
-6
1
0
0
0
4
-67
-7
-3
0
1
-2
-1
-1
2
0
22
-1
-2
-2
1
6
-1
1
4
0
2
-5
-10
1
-3
0
-2
0
-3
3
-1
0
5
-7
-5
-3
-7
-1
-1
1
-7
11
1
1
1
5
13
-1
-1
3
-4
3
-2
-2
1
32
3
0
-13
0
0
0
0
3
22
0
-2
-2
3
-13
-1
-3
1
-1
22
-1
1
-2
0
0
0
0
1
0
1
3
-11
6
-2
0
-1
0
0
2
1
7
-1
-2
0
-3
-4
1
0
0
-6
9
1
1
0
9
-19
-2
0
3
-4
4
0
3
0
-2
-2
0
6
1
0
0
0
3
-42
-5
-3
0
0
12
-1
0
3
1
-13
-1
-1
-2
0
10
0
0
3
0
2
0
4
-8
-2
1
0
0
0
2
-2
-15
11
-8
-11
-4
-1
-3
-1
0
3
0
2
1
2
-10
-17
-4
-1
4
-5
5
1
-2
-1
-48
-1
0
0
2
0
0
0
5
57
0
-3
2
-6
0
-1
-3
6
0
1
-1
-10
-3
1
2
0
1
0
-3
2
-7
0
0
-3
1
0
0
-5
3
-6
-3
-3
-18
0
-4
0
0
-2
1
0
0
2
0
2
0
127
-2
-1
4
-4
4
1
-6
0
22
2
0
-7
1
0
0
0
4
50
6
-2
0
0
-15
-1
-4
3
-1
9
-1
-1
-2
0
-12
0
-1
-3
-3
1
2
-3
7
-2
1
1
0
0
2
-1
10
-12
-6
10
-3
1
3
0
0
-1
1
2
1
1
9
-33
0
0
2
-4
3
2
5
1
0
-4
0
11
0
0
0
0
3
-28
1
-2
-1
0
12
-1
0
2
3
-23
-1
2
-2
0
5
0
0
0
-1
1
4
10
-7
-2
0
1
0
3
2
1
-4
2
0
0
-3
4
-1
0
0
6
-10
1
1
1
-12
-12
-2
0
3
-5
4
3
2
0
-51
-2
0
3
1
0
0
0
4
9
6
-2
1
-4
4
-1
-2
4
2
-24
-1
-1
-2
0
-4
2
0
-4
-4
1
2
9
-1
-2
1
2
0
2
2
-1
2
-7
-5
5
-3
7
1
-1
0
5
-12
2
0
2
-3
-51
-1
0
3
-4
3
2
0
1
-13
2
0
0
0
0
0
0
3
8
10
-2
-1
1
-8
-1
-3
2
0
-5
-1
2
-2
0
-16
0
-1
-7
-3
1
5
5
4
-1
1
2
0
3
2
1
9
-17
-1
15
-3
7
3
0
-1
3
-8
1
1
0
6
-12
0
0
0
2
-1
-1
0
-1
-3
0
-1
24
0
0
0
0
-2
27
-8
2
-2
2
6
1
2
-1
0
-30
2
2
-1
0
3
0
-1
3
2
0
0
-3
-1
0
-1
-1
2
-2
0
-1
-2
1
4
0
3
-5
-2
1
0
-2
6
-2
-1
0
-2
-6
-1
0
-1
3
-2
-2
-1
-2
-4
0
0
11
1
0
0
0
-2
-30
-4
3
0
0
0
2
3
0
-1
-21
2
0
-1
0
4
0
-2
1
1
0
-3
-6
3
1
-1
-1
2
-5
0
-3
1
21
2
-17
4
-7
0
0
0
-3
7
-3
-2
0
1
-9
0
0
-1
2
-1
-1
-3
-1
-13
0
-1
-6
0
0
0
1
-1
-2
0
2
-2
1
-7
1
1
-1
-2
-1
2
3
-1
0
2
0
-2
-1
1
0
2
-7
6
0
-1
0
1
-3
0
-1
3
27
5
-24
3
-6
1
1
0
-2
6
-2
-1
-1
2
1
-1
0
0
2
-1
0
0
-2
2
-3
0
20
2
0
0
-1
-2
5
-4
2
0
0
8
2
2
0
0
-24
2
0
-1
0
5
0
0
3
0
0
-1
2
-5
1
-1
-1
1
-3
0
-3
-9
-16
0
14
3
0
-2
0
0
1
1
-3
-2
0
-6
-10
-2
0
0
4
-2
0
-3
-3
-22
-2
0
0
3
0
0
0
-2
28
1
3
1
-4
0
2
2
4
-1
3
3
-7
-1
0
1
0
0
0
-1
0
-6
0
1
1
0
0
0
-5
0
-6
-2
0
-6
0
5
0
0
0
0
0
0
-4
-3
1
0
48
-1
0
0
3
-2
0
-6
-2
9
0
0
-21
1
0
0
1
-2
-14
5
2
0
0
-10
2
1
1
-2
26
3
0
-1
0
-6
0
-1
-3
0
0
0
-1
5
0
0
1
-1
-3
0
-3
5
17
2
-15
4
0
2
1
0
0
1
-3
-2
0
5
-20
0
0
0
1
-1
1
2
-1
22
-3
0
5
1
0
0
-1
-1
7
0
1
-1
0
6
1
1
-1
1
2
2
3
-1
0
2
0
2
1
0
0
2
6
-6
0
-1
0
-1
0
0
-1
-1
-28
4
25
2
6
-1
0
-1
2
-7
-2
-1
0
-6
7
-1
0
0
2
-1
1
0
-2
0
-3
0
-11
1
0
0
0
-2
-3
4
2
0
-4
1
2
1
1
0
16
3
0
-1
0
-3
0
2
-2
-2
0
0
5
-2
1
-1
1
-2
-1
0
-2
2
-20
0
16
3
7
1
0
0
2
-9
-2
-2
0
0
-24
0
0
-1
2
-2
1
-1
-1
13
0
0
-22
0
0
0
0
-2
-14
7
1
-1
0
-5
1
0
-1
0
33
2
3
-1
0
-9
0
1
-5
-1
0
2
3
1
0
-1
2
-3
0
0
-1
4
0
4
0
3
5
2
1
-1
2
-5
-2
-1
-1
4
11
