# shape: 512
# dtype: int32
# layout: channel
# tensor: input_bias
-1777
-70
-1311
-1260
604
-1629
-940
-666
-1425
-264
1229
2238
-636
498
-1431
-1604
-862
268
-1543
248
537
-122
280
-980
-21
-311
-757
-466
-1079
2136
-1038
-696
-365
-582
3558
-349
-743
-1080
-907
-1200
-977
3132
-232
-337
426
603
-1089
-1279
455
-907
-3806
-852
-804
-1842
-282
-1313
119
-112
-549
1532
-695
-725
-1125
799
-588
-803
-1204
-350
-1771
1722
-1606
-621
-1268
-634
882
164
-1867
-1972
-2055
2380
-797
-1456
-111
-391
-1077
-1640
-1206
-1170
-37
-430
-369
813
-1383
-1016
-472
-411
232
-623
-688
-120
-524
15
-1238
-1691
-293
-414
-358
-1409
-1700
-1391
-952
-1449
-1354
-1054
870
2221
-1046
9
1976
-501
-823
-278
-483
-695
157
-1877
-893
-579
-732
1889
-430
805
-760
-281
-785
-727
-364
-542
-263
-1559
-609
2376
964
381
-141
-1321
-207
-494
-1442
-298
-571
-260
-1044
-885
-831
680
762
426
-1050
-1121
-1876
2541
-1490
-1000
2238
-641
-720
73
-53
1411
-1886
-573
-1367
1074
-845
-1532
554
-2179
-1681
-2122
-1243
-881
-2285
437
-893
-261
-1267
1984
-1139
359
-1070
-2148
-1133
-209
-1417
-587
-779
-421
-217
636
-1771
-1437
-1509
-270
-949
-1467
-1005
-1926
-697
-393
-1115
31
-1439
-212
2169
213
-714
247
-574
42
978
-975
-765
1835
1756
-732
-274
149
200
1043
1537
-1129
-770
-1612
125
-1164
-932
122
-613
-451
-602
-303
-198
-744
-539
-1147
-1482
-1302
-900
-1709
-1643
-391
-1486
-1489
-1913
-361
-1551
-227
-320
905
-846
1167
-804
-88
-354
-691
-2300
-845
-858
-973
-488
-621
-710
-634
-180
-54
-789
-789
-48
-1444
-1618
-1802
918
-706
-223
1039
-1108
1431
2119
-1427
-634
-1273
-1142
-1278
-1303
980
-190
-1308
-1514
-641
885
-1158
-173
-1004
11
897
525
51
549
-1312
-1161
-745
-72
-264
1272
-1467
-542
-161
250
1071
-1135
374
-1041
-1490
1257
380
-1657
-1472
-1467
-1149
-273
-216
-97
-1723
-972
-465
-1362
-429
-720
-682
-616
-1306
-1452
-1280
-957
-1102
523
-661
89
-953
-1068
555
-419
-1231
-974
1961
-1465
-83
-1098
370
-586
180
-1383
668
-518
-1274
4521
-1018
-511
1177
-1187
-1223
-1086
-401
-46
-1498
-1332
-1109
-482
-938
-618
-1308
-660
-295
-1681
-1003
-1227
595
-1817
721
-1757
-904
-1485
232
-1434
-1687
-368
-625
-1028
-533
647
-228
-727
412
505
843
-432
1414
-615
-1633
-279
276
-997
-1700
245
-1132
-1346
237
1277
-1548
1627
95
-311
1290
-437
-894
-1730
-801
-1499
2359
-1683
-883
-565
-653
156
-842
1477
-882
-960
485
-715
-685
345
219
-1066
-1950
-312
-360
-851
-1585
289
-1322
1650
-1214
-8
-1108
-785
-1311
-1621
-1249
-1508
-1640
-1316
-700
-1493
-1109
638
786
-1212
90
-338
-851
-437
1026
-1158
-166
1816
-1204
-1355
-503
-943
-659
-1885
799
291
-534
-1415
-939
-427
-1505
-365
-1532
503
-1437
-263
771
133
1239
-216
-1397
-271
1124
-476
-1648
146
-1128
327
860
-1106
-251
519
-422
