# shape: 512
# dtype: float32
# layout: channel
# tensor: bias
-0.433906436
-0.01704707742
-0.3200569153
-0.3075248301
0.1473481804
-0.3976186514
-0.2294408679
-0.1626054198
-0.3479411602
-0.06436610222
0.3001517057
0.5464478135
-0.1553200781
0.1214792132
-0.349337399
-0.3915780783
-0.2103661895
0.06551274657
-0.3767975569
0.06043761969
0.1311796755
-0.02967553586
0.06827865541
-0.2391841412
-0.005187377334
-0.0760293901
-0.1848592609
-0.1137286052
-0.2635367215
0.5215414762
-0.253382057
-0.1699621081
-0.08915738761
-0.1420032531
0.8687276244
-0.08514925838
-0.1814171225
-0.2637095749
-0.2215227783
-0.2930671275
-0.2385699153
0.7645554543
-0.05663793534
-0.0821890682
0.1040434688
0.1473133266
-0.2657842934
-0.3122969568
0.1111053824
-0.221450001
-0.9291426539
-0.207982868
-0.1963111013
-0.4497174621
-0.06881406158
-0.3204850554
0.02913495898
-0.02722740173
-0.1340654492
0.3739711046
-0.1697629094
-0.1770728528
-0.2745780945
0.195173502
-0.1434740871
-0.1959666759
-0.2939146757
-0.08555588126
-0.4322634935
0.4203895926
-0.3920479417
-0.1515471488
-0.3094910681
-0.1547198445
0.2152324915
0.04011261463
-0.4556994438
-0.4814868569
-0.5015896559
0.58101964
-0.1945633143
-0.3555411696
-0.02720615268
-0.09556305408
-0.2629344761
-0.400416404
-0.2944335938
-0.2855853438
-0.009092465043
-0.1049916893
-0.09018829465
0.1984920055
-0.3375606537
-0.2480697036
-0.1152042598
-0.1004212573
0.05656817555
-0.1521702707
-0.1678680032
-0.02930815518
-0.1278687119
0.003633469343
-0.3022536337
-0.4128469825
-0.07162520289
-0.1010322198
-0.08735446632
-0.3440952897
-0.4151521921
-0.3395932615
-0.2323229313
-0.3537203968
-0.3305344582
-0.2573881745
0.2124489248
0.5421693325
-0.2553703487
0.002094194293
0.4824276567
-0.1223521531
-0.2009031028
-0.06793777645
-0.118036449
-0.1696944833
0.03832420707
-0.4581632018
-0.2180888057
-0.1413075775
-0.1787655354
0.4611736238
-0.1050455272
0.1964443028
-0.1854791939
-0.06865739822
-0.1915652901
-0.1774226725
-0.08881373703
-0.1324131936
-0.06430225074
-0.3807056546
-0.1488020867
0.5801417828
0.2353584319
0.0930570066
-0.03449605405
-0.3225826621
-0.05049835145
-0.1206469685
-0.3520770371
-0.0727737695
-0.1393890679
-0.06335511804
-0.2549545765
-0.2160597593
-0.2028132677
0.1660790443
0.1859323084
0.1040960103
-0.2563714981
-0.2737726867
-0.4581200778
0.6203449965
-0.3638647795
-0.2442619205
0.5463341475
-0.156611979
-0.1757591665
0.01784750819
-0.01288995147
0.3445942104
-0.4604980946
-0.1400002837
-0.3337112069
0.262116611
-0.2062290907
-0.3740725517
0.1351992637
-0.5319322348
-0.4103884697
-0.51799649
-0.3035210371
-0.2149870545
-0.5578269958
0.1066458821
-0.2180755436
-0.06370158494
-0.3094316125
0.4843843579
-0.2779851556
0.08774337173
-0.2611986101
-0.5244837403
-0.2764950693
-0.05104890466
-0.3460148871
-0.1433343738
-0.1902592629
-0.1029038951
-0.05296249688
0.155313462
-0.4323134422
-0.3507677019
-0.3684957623
-0.06595647335
-0.2317648679
-0.3581046462
-0.2454503328
-0.470333755
-0.1701844633
-0.09585018456
-0.2722495496
0.007534399629
-0.3514142632
-0.05180846155
0.5295988917
0.05203972757
-0.1742577851
0.06024211645
-0.1401730478
0.01023739576
0.2388420701
-0.2381450385
-0.1868667752
0.4479348063
0.4287694395
-0.1786000729
-0.06695009768
0.03632560372
0.04879811406
0.2546111345
0.3753273189
-0.2755660117
-0.1878879219
-0.3935263157
0.03059047461
-0.284116298
-0.2275857627
0.02980992198
-0.1495890021
-0.110069789
-0.1470254809
-0.07401679456
-0.04834417999
-0.1815809906
-0.1315481514
-0.2801357508
-0.3618091941
-0.3179808855
-0.2197446525
-0.417298317
-0.4012137651
-0.09556442499
-0.3628549576
-0.3635187745
-0.467025578
-0.08802375197
-0.3785682917
-0.05533406138
-0.0781044364
0.2209482789
-0.2064317167
0.284884125
-0.1963355839
-0.02157250047
-0.08638742566
-0.1686746925
-0.5614547133
-0.2063880563
-0.2094562203
-0.2374376804
-0.1191155761
-0.1515427381
-0.1734185517
-0.1547659039
-0.04398414493
-0.01317450404
-0.1925788224
-0.1926886588
-0.0116930306
-0.3525611758
-0.3949676454
-0.4399992824
0.2240385711
-0.1724831611
-0.05440562963
0.2535967231
-0.2704547048
0.3492907882
0.5173219442
-0.3483600318
-0.1547653675
-0.3106792867
-0.2787471712
-0.3119368255
-0.3180167675
0.2391902357
-0.04626518488
-0.3194039464
-0.3697040975
-0.1564281732
0.2161560357
-0.2826874554
-0.04219252616
-0.2450039089
0.002753734589
0.2191114724
0.1281487495
0.01257249713
0.1340666115
-0.3202329278
-0.283554107
-0.181837976
-0.01753392816
-0.06444382668
0.3106349111
-0.3580504656
-0.1322589219
-0.03932693601
0.06111493707
0.2615398169
-0.2770304978
0.09126675129
-0.2541649938
-0.3638351262
0.3069262505
0.09269285202
-0.4044980407
-0.359313935
-0.3582416773
-0.280480504
-0.06668451428
-0.05266858637
-0.02359777689
-0.4205876589
-0.2372555584
-0.1135019958
-0.3325893283
-0.1047263145
-0.175886631
-0.1664844006
-0.1504103243
-0.3188446164
-0.354611218
-0.3125754595
-0.2336761951
-0.269127965
0.1277078837
-0.161496222
0.0217667073
-0.2326600403
-0.2608157694
0.1355906725
-0.102199465
-0.3004476428
-0.2377533466
0.4787044823
-0.357670784
-0.02037346363
-0.2681590617
0.09033277631
-0.1430289745
0.04402840137
-0.3376218081
0.1631109118
-0.1264925003
-0.3110437393
1.10378015
-0.2484797388
-0.1247193366
0.2873987556
-0.2897723615
-0.298532486
-0.2650287747
-0.09799835086
-0.0112298429
-0.3656856418
-0.3252071142
-0.2706847191
-0.1176267713
-0.2290026844
-0.1509836018
-0.319393158
-0.1610568911
-0.07191158831
-0.4102849364
-0.2447607964
-0.2995320857
0.1452434659
-0.4436608255
0.1760826409
-0.4288864732
-0.2207476795
-0.3625627458
0.05666697025
-0.3499915004
-0.4119603038
-0.08987748623
-0.1524802893
-0.2510395944
-0.1302360147
0.1579000801
-0.05567882955
-0.1774998605
0.1005873978
0.123252064
0.2058829069
-0.1053892896
0.3451953828
-0.1500714719
-0.3987987638
-0.0681283474
0.06732577085
-0.2434183955
-0.4150083065
0.05985966325
-0.2762714624
-0.3285551965
0.05791218579
0.3117946386
-0.3778851032
0.397174716
0.02327892184
-0.07604390383
0.314940691
-0.1067141742
-0.2182517648
-0.4224241972
-0.1954382658
-0.3659739196
0.5758441091
-0.410913974
-0.2154953629
-0.1378459036
-0.1593445092
0.03811058402
-0.2055053711
0.3605177999
-0.2153645307
-0.234414041
0.1183364093
-0.1746383011
-0.1672250181
0.08413165808
0.05354732275
-0.2603728473
-0.4760779738
-0.07614486665
-0.08785329759
-0.2077187896
-0.3870560229
0.07060885429
-0.3226448298
0.4027910233
-0.2964565158
-0.001967266202
-0.2703959942
-0.1916602254
-0.320127815
-0.3957468867
-0.3050296307
-0.3682319224
-0.400287956
-0.3214026988
-0.1708635092
-0.3644617498
-0.2708610594
0.1557675004
0.1918119788
-0.2958750725
0.02207949758
-0.08258627355
-0.2077820897
-0.1067633629
0.2505156994
-0.2827183604
-0.0406486392
0.4432473183
-0.293998003
-0.3309207857
-0.1227436438
-0.2302408814
-0.160972923
-0.4601056874
0.1950398237
0.07092525065
-0.1303106993
-0.3454129994
-0.229177624
-0.1042091697
-0.3674163222
-0.08906593174
-0.3739575148
0.1227459013
-0.3507468402
-0.06420993805
0.1883461624
0.03249394894
0.3025193214
-0.05278666317
-0.3410104811
-0.06606253982
0.2743140459
-0.1161265969
-0.4023372531
0.03563176095
-0.2753995359
0.0797894001
0.2099281251
-0.2701000869
-0.061346367
0.1267901361
-0.1031212881
